{"layers": [25, 100, 10], "weight": [[[-0.20680878414963322, -0.3020798259700914, -0.05090453771554305, -0.03971255050975775, 0.2531256946190277, 0.032592105447563406, 0.028192759670284534, 0.46900351021257963, -0.3481936952942396, -0.7861852300180088, 0.5288598834456977, -0.130064423590839, -0.12077856253863296, -0.07337844817063366, 0.07950967416856439, -0.2435625242327641, -0.1895338469335707, 0.2289448823463241, 0.2684298604994032, 0.11903051124158019, -0.6391933338112953, -0.3684766168220437, -0.15484327854793756, 0.22811432408012672, 0.12551359376474122], [-0.02431590971124932, -0.022270145843143286, 0.05284914846421595, 0.0647577872830712, 0.46118852054272774, 0.5739550209032945, -0.016611497360800608, -0.4015356255469115, -0.2759073799002893, -0.09005072011521265, -0.1407825932471813, -0.14850464403897964, -0.28088688044829735, -0.48543937007873345, 0.43445582289111767, -1.565831317882904, -0.2727863907091133, 0.985519929478075, -0.10625153385246706, -0.9662845309226391, 0.5063671254596563, 0.22448183767858088, -0.1156593946591078, -0.1405070841917162, -0.2410097166434635], [-0.4277657307590065, -0.23744094355160467, -0.044788020642382416, 0.09024866278972334, -0.5024736966341972, 0.5051156086471376, -0.14596232946226503, -0.7103955962297382, 0.10752993526415515, 0.6973290081642408, 0.3670530551008992, 0.26322353606069054, -0.09425273647343772, -0.08498338087723664, 0.6233402291158463, -0.4753361952820545, 0.012195101535323691, 0.39676992061217375, 0.2089002201964123, 0.013682518752241874, -0.22844728948698115, 0.19299825628897957, -0.02312286854929089, -0.023947207672547998, -0.2285770622571756], [-0.07390855018526252, -0.12282421374321448, -0.07320658545510532, -0.03475410253708763, -0.4987253209358916, -0.3329486197169609, 0.08846911452097626, 0.2758278768225078, 0.3586973946108975, 0.248827444382221, -0.28926430350438587, 0.16185040074660692, 0.1183233145401579, 0.32171972709059715, -0.37890019551894416, 0.9809910707003343, -0.06949214521253477, 0.030465053809047397, -0.1095621041734999, 0.2797666115192837, -0.14439093576728104, -0.3137187957568957, -0.11455241443259767, 0.1418479253672476, 0.04179194291011484], [-0.052685843511208884, -0.09477540137974172, 0.07746728315614632, -0.11673510097118227, -0.011504025707497876, -0.1794406247680354, -0.23914091466843423, -0.19513932621367064, 0.051592603067907, 0.008719627281696538, -0.25267344864910196, -0.11043104870649453, -0.05679068812004813, -0.029319379573712334, -0.1857744701426143, 0.24839055141423086, 0.00294974804256138, 0.003801685355196311, 0.07575597567692013, 0.17278030913500592, 0.07493140254332949, 0.07404427145651173, 0.06407132167135389, -0.08089079463939747, 0.026724848080004884], [-0.32074944923098664, -0.09661372967569828, 0.23618132198737724, -0.0070038209203344, 0.25465412119640934, -0.028561357396823518, -0.6784200300442208, -0.09932860928454645, -0.4064730809278889, -0.5844276690429733, 0.2899580719598704, -0.4781666939726672, -0.13114636375170288, -0.026429762294473268, 0.264291823996544, -0.28067972645183237, -0.14822017968155332, 0.390638461299032, 0.5816212215414679, -0.12054125060627788, 0.32119648264437883, 0.21095985935227896, 0.15094948977258793, 0.284518841842401, 0.23822610428616003], [-0.28922949612922594, -0.4312946412303002, 0.14128191841316953, 0.017158990741492394, 0.08706741641622137, -0.06261761964535155, 0.17383607428035783, -0.2921348513438989, 0.16789218024343172, 0.5480365801372207, 0.018413878887113933, 0.06337798560840514, -0.16832410657128133, -0.211119497597813, -0.31407066637104236, -0.04254069601483653, 0.1443152906375417, 0.5528540254593035, -0.3926604828723215, -0.8688418556970688, -0.28810783646848254, -0.08848076877767742, -0.045711990046258456, 0.01842530642434847, 0.16839405170910768], [0.5710749060537418, 0.354821053800551, -0.10469057451802012, -0.08471101735329802, 0.304156414185635, -0.2926853700651248, 0.20912687818123973, 0.5721275147060277, 0.3487881513794695, 0.4132034767840415, -0.7565895511027162, -0.12121657560504276, 0.291171726069321, -0.09447715473176754, -0.70859285476286, 0.46181474713191245, -0.07076779174137207, -0.22558806652775304, -0.4553967795204964, -0.3347964622579172, 0.19141453924514706, -0.11552347122068675, -0.042606180702067634, -0.24573233989585386, 0.4698469251394482], [-0.4332337613298119, -0.2564456707719159, 0.0478172885609368, 0.14107079282510934, -0.6110443816937369, 0.15078231538723658, -0.43541822523270535, -0.6313996540948519, 0.009040402599618143, 0.5526133575188049, -0.12033503755130255, -0.37637211342157634, -0.21449660137637283, 0.08174934112846372, 0.15125304780335483, -0.1798652236079528, 0.09799155536888886, 0.17627133926207272, -0.08069534966073744, -0.07952061641828806, 0.060586096150792385, 0.15507346534537417, 0.1856770389053015, 0.4260318347273276, 0.18338434728926967], [-0.38560063058318894, -0.5158981528063074, -0.18243374589540876, -0.16959477352547342, -0.4825116418932242, -0.48337675685306797, -0.10173526497359389, -0.09752270879172616, -0.01624262043011084, 0.19923031795567367, -0.13153311113455227, 0.02492169559330279, -0.106577158724202, 0.08248641885797019, -0.12130791036005904, 0.7214058711972289, 0.27126816217379995, -0.0020618753485286486, -0.2460748381229856, -0.08987739860853118, -0.1533747788418175, -0.6058947512093494, -0.1662445293879766, 0.2497320487180461, 0.511729736579653], [-0.4965483313173955, -0.31647696060406605, -0.015193170128968586, 0.10947564468061845, -0.5873833566655732, -0.46423549718412027, -0.6819642514812482, -0.4253822040196689, -0.27397252706506, -0.17892028851706737, 0.24535952943094624, -0.35540859164654526, -0.13186649314149818, 0.22577469919408083, -0.3346615740646721, 0.856302166883683, 0.27247247796392005, -0.2320293156385677, -0.11315277267278287, -0.12282353396657847, -0.08510326193909937, -0.048777713316671786, -0.0014111942302320504, 0.5261967451148974, 0.2042478204583034], [-0.04198991336195774, -0.024187573810696826, -0.07743810234798673, -0.36463489704291513, 0.27263444164588546, 0.22405639061798283, 0.31117392756837275, -0.0903894420550259, -0.6747263496208389, -0.631602890676982, 0.7119713377809204, 0.22347148978971645, -0.370735551156646, -0.4120326880668977, 0.41698859227250584, 0.14530593303138709, -0.0492558524867362, -0.5960238346851784, -0.09836870341804986, 0.12236899389438533, -0.09226566723279768, 0.06463411948816034, -0.12424571879421449, -0.3594688871249158, -0.3392750207172121], [1.040047212986136, 0.605939682639738, -0.13807290448939527, -0.09096165227861788, 0.24833510589650962, -0.48933829643085264, 0.1510209275682697, 0.8949237765073407, 0.4832800963853837, -0.033960969308300365, -1.9833883769837206, -0.9457861678790422, 0.39025787880613894, 0.03674455143899353, -0.5425117132888487, -0.5461546890421242, -0.5164980675807769, 0.22943250532352033, -0.04184968928681862, 0.03875337382255558, 1.1500611508296212, 0.15454977815340745, 0.24360940508666654, 0.17874082013049392, 0.5092772659911377], [-0.255326943091359, -0.03994070802656705, 0.037695308045016244, -0.12245460366591848, 0.0937872941024195, -0.024918301993261623, -0.45750316046374273, -0.026076522874421148, -0.41306156307024894, -0.6073279210806865, -0.009705165716852005, -0.6115129210246583, -0.1237806480225751, -0.28556308385448287, 0.2654610125024463, -0.262671503358196, -0.2138662134233812, 0.04582632726444804, 0.04283461482419455, -0.07838676441886773, 0.19853138273269905, 0.1545492983377061, 0.2143289069126107, 0.34492420680583197, 0.20470918396773882], [-0.3703147681275847, -0.43739585186576135, 0.09699267735257668, 0.2449168699711125, 0.28344196101620756, 0.016447556901865137, 0.07198981942878058, -0.09413235049415117, -0.2617499493403133, -0.014860789243739918, 0.7829221974830597, 0.3558933037004853, -0.2872463499402874, -0.33265735035049987, -0.21034081656011944, 0.3728016123748147, 0.7549604401748283, 0.4803900253771801, -0.44172739173403935, -0.7984540327229889, -0.5248388838288819, -0.23760949728429484, -0.09601093631477255, -0.2875544967569058, -0.11325822364849956], [0.6670714765806735, 0.6216538422611149, -0.009269286335522693, 0.023315614912388514, 0.13587054283313288, -0.3658982783254345, 0.31272548938789113, 0.3102496888359158, 0.7615818814143285, 0.5781750456123014, -1.1619274858922353, -0.33603734427886234, 0.22036787062634644, 0.08558000355244982, -0.3275318698133106, -0.052933649118292764, -0.1315806745649826, -0.018819972133235188, -0.24780019317378416, -0.13170510095937607, 0.6640824966833376, 0.4210717481970133, 0.2078212944686273, 0.027800377977790156, 0.21506541423180894], [-0.3234505697553931, -0.5898234836028758, -0.07332677252110521, -0.13450915499090071, 0.09141227144333161, -0.4969306419067373, -0.36735269531829523, -0.1076480938072843, 0.01447385735834006, -0.3873864676148806, -0.03256388156050438, -0.1426681956377723, -0.1573486795809222, -0.09179511858079815, -0.2593599956489016, 0.024454193110959546, -0.0108958803949083, 0.49281118257896367, 0.1682838913047275, -0.26290330773366927, -0.19928330251857035, -0.306225137857484, -0.22374514182611013, 0.04047966086414175, -0.11875694483502729], [-0.07169246852626862, -0.14562611031885067, -0.4680211447764636, -0.4580832746866124, -0.48153745450609925, -0.11436031056593882, 0.33610188899458554, 0.05076399434634539, -0.05511829341355796, -0.044108042032943114, 0.3870158701490123, 0.5026987721492439, -0.2644299793103961, -0.10973227584926001, -0.2671396105905343, 0.8854830190093587, 0.22820448163148238, -0.7962082364964373, -0.45765285757824464, 0.39391489387264694, -0.3456996911064666, -0.21470058249487958, -0.2390119572742881, -0.2745269934932906, 0.035868414605571386], [-0.17913396109798438, -0.3433077867312983, 0.30102655339812784, 0.16027730041929295, 0.16580722937162382, -0.40786214282045297, -0.5901669923912086, 0.5022277739272947, -0.1934927153000731, -0.9190395872327436, -0.05574224349580244, -1.1492527790697376, 0.23004974852063192, 0.43648869624304476, 0.02118485263969648, 0.014002070623976405, -0.01683629735060093, -0.06237584737549057, 0.5923053135721654, 0.5776117145235062, 0.06965596976119663, 0.18694556488989322, 0.1576374687940672, 0.554760823327004, 0.8886551132906985], [0.22827416641400847, 0.2680380248084069, 0.10010998550215564, 0.05738510887870952, 0.8469848842894702, 0.08587082518270402, 0.3323243089561724, 0.9139640580100294, -0.35430194655839126, -0.92649120068571, 0.2686917864767558, -0.2572919806605421, -0.24106441116820762, -0.1874156512367147, 0.012847536212108797, 0.006340664678559277, 0.3544033281132495, 0.008685322909778862, -0.18807874103167987, -0.2242530611592975, 0.4230635261293281, 0.3946853914089444, 0.20369323691956526, -0.17652094452869654, -0.0791470712267033], [0.08543861256015801, -0.3239781878256865, -0.2117623247594984, -0.12867156204463967, -0.0713669630937527, -0.02352590762117733, -0.030672624200551533, 0.2689391590772153, -0.07093098152743889, -0.3369767568739917, 0.20778046630265207, -0.03230582394419836, -0.05621940013957882, -0.2756427990927298, 0.18724827023233706, -0.2972669895862358, -0.29442362606589967, 0.06022608550714531, 0.2511169928476251, 0.24237213998956858, -0.2289695580150694, -0.20857490686894245, -0.06550202620231334, -0.021990783557725192, -0.2788394386064323], [0.478016233782093, 0.6208354118710162, -0.009692298304291962, -0.1558143004079838, -0.3148086660235104, 0.02587047809882233, 0.17033153419696573, -0.10051192076348799, 0.42032722443393883, 0.564198377763944, -0.34582759682650216, 0.2548764375989334, 0.33834255563175764, -0.038572559199132085, 0.21561860947461714, 0.21217069838948113, -0.5306882848365501, -0.7128511874436373, 0.08018401026288242, 0.8229201999994407, 0.17313807073464135, 0.37142646192534773, 0.13541837067341556, -0.509668534664665, -0.6244912071738713], [-0.129091771774541, -0.03221005983822594, -0.16773312738939583, -0.20115571660610437, -0.1816202631224483, -0.13404553445265097, 0.03441993845768411, -0.18685543748603517, -0.38968375443789827, -0.4575239499104413, 0.004785889382215797, -0.46483653725517315, -0.5355034857272717, 0.026100312120231027, 0.03365755540488218, 0.3075294739264027, 0.5256728076525512, -0.1860339574137128, -0.12848009992015397, -0.1867904277965778, 0.9950019092062945, 0.5882308548868374, 0.4346113768470093, 0.6077402878492775, 0.6135311590804852], [0.10330546558257567, 0.07734124325448365, -0.08268270785253658, -0.24052168686189662, -0.3854388080827755, 0.07124361582181228, -0.2806406815852627, -0.26187387181058025, 0.2239406101362613, 0.3587321453541573, -0.417977246011219, 0.2027379519787083, 0.39856960596713725, 0.23385191649177461, -0.053020173925208705, 0.07647656858195025, -0.3535934943739051, -0.5094403326038487, 0.14514464584874384, 0.5075122506323015, 0.00570489164216135, 0.1663922091879793, -0.0026358587551707315, -0.1907049258861661, -0.2424967284309244], [-0.05514438653763139, -0.14861265679539354, -0.22104962607087927, -0.06298285481083392, -0.898222727723852, 0.32209715324078136, 0.3205354125547233, -0.21509317925712995, 0.34251654464988446, 0.8518951917429741, 0.04263840750108129, 0.7668450947941341, 0.056319947290418414, 0.329584143064295, 0.48359799120410674, -0.3296541163348861, -0.028454835754881877, 0.6292115622768459, 0.37651515259442436, 0.034058298574889054, -0.09192056263597193, -0.4679864735662032, -0.35565387922507746, 0.18878265678858108, 0.2768830169951923], [0.10999983611587894, -0.07056378220040584, -0.17350669397986582, -0.4065964188679794, 0.16994759799958684, 0.32527955692971916, 0.6512666569479807, 0.4163725590204542, -0.6280554630309569, -0.8416051204809883, 0.6890587696365432, 0.558746131491351, -0.6339784203958311, -0.3181917067951835, 0.04611750655475288, 0.44624974978050375, 0.09218973331955292, -0.5836821427707479, -0.39541702962881475, 0.0907451281152077, -0.2988971510196038, 0.08140530373583306, -0.12168165782742008, 0.007050634887877702, 0.0174221613231142], [0.03223252598574051, 0.12836471922247752, -0.10750366474685347, 0.03647247289408312, -0.049578981792851105, -0.08412631522433002, 0.03694542466541701, 0.004193547904895278, -0.007424237393638123, 0.03726430218247079, 0.06103896241044267, -0.12002094339702991, 0.0946568698044013, 0.0013048907345241552, -0.28740580421090234, 0.16335953168281506, 0.08442445806842759, 0.1418764857777999, 0.1705702688003776, -0.01606695058055793, 0.03669183745289572, 0.14039750963269707, 0.15411998056054727, -0.08744892232925815, 0.0818196101836688], [0.04316423380048547, -0.03448750127145866, -0.13441285234962638, -0.33185434931046215, -0.37155357240360803, 0.09308287792293105, 0.20317044812527432, -0.059885249491193726, -0.03220680178442325, 0.29600381280538435, -0.03371173640292385, 0.3953066383870844, -0.2940233390074946, -0.08622830061924878, 0.08154422363984215, -0.07757051210993736, -0.10035453016241064, -0.12916286095145788, -0.015758173065662073, -0.031817156103007456, -0.19069425186103053, -0.18931485386776056, -0.19850020046730427, -0.31605658437818535, -0.22914217673257967], [0.2064247878638279, 0.1813540083672285, 0.03228831258958815, -0.059168673435958205, 0.6439277904983686, 0.11639410836318599, 0.2755758824254186, 0.5573746410545267, -0.0668087838441805, -0.22618110338596276, 0.11126595967812097, 0.1131497928961444, 0.15914323801342886, -0.18222138422878867, -0.025298751381107314, 0.10299555898220199, -0.1833888135044131, -0.1574390377825586, -0.059234725231524704, -0.030449384314059275, -0.27524814093919825, 0.14712070342702566, 0.03641325338393015, -0.39934373862568184, -0.07523867810227747], [0.13047484450704555, -0.055236303382125554, -0.1187711497530779, -0.038360338390845794, -0.017780652497968192, -0.08636813217766909, -0.0333453876233341, -0.0068607778662492435, 0.007158403970107985, 0.014437821995517753, -0.018127434917838085, 0.00783297508526836, -0.09048254903191626, -0.0971781423037619, 0.014616252336670889, 0.1646876258291963, 0.16202412816583914, -0.16751900730459846, 0.054933654252329336, 0.05553764453589324, 0.010951446053827472, 0.14387507088155507, 0.07068170173829229, -0.02145060282675846, -0.22255195216625942], [-0.12567767553581397, 0.10434544077683833, -0.08934944303417584, 0.13818144626294496, -0.7624867956017158, 0.4053727925925687, 0.08133685812320071, -0.6287811508717251, -0.015156759146384063, 0.7987890526477532, 0.2979130360481276, 0.8903891531230478, -0.20110271478827912, -0.049728553091833744, 0.48560841093964824, -0.4758441171956349, 0.024006928029549235, 0.3625830004308732, 0.059604843714601584, -0.19236104855948416, -0.038194939113571774, -0.07994056832677197, 0.05867417365764296, 0.06291752479040304, -0.528138025636505], [-0.31266566134239715, -0.30556927209872636, -0.08811223760489525, -0.2314358156748928, -0.2372863086562884, 0.46267913572939434, -0.27609422311196574, -0.2054579165446386, -0.5692390906499212, -0.22509362896449464, 1.0323609272886458, 0.12319182375815674, -0.30318178976434174, -0.39432577700698906, 0.05827695222818947, 0.4300163160300798, 0.3475963200017897, -0.1516142674813624, -0.07861338783133019, 0.026663630618247672, -0.4814332211617701, 0.204582949730427, 0.13617005128532156, 0.07241295775931747, -0.04282119287505974], [0.12389303484974956, 0.15045257235053885, 0.03748248150760818, 0.12645084565042827, 0.386427770327792, -0.5019670727790908, -0.20730861052785246, 0.6072520136614975, 0.13352420164956663, -0.4722468945322561, -0.056636438250095796, -0.26585719637386573, 0.19580130064293635, 0.058656326040797964, -0.5514204846272108, 0.9274146941087654, 0.10700271359870726, -0.5224723237589396, 0.032661944857790365, 0.4267949122750985, 0.12674407558012246, 0.30941491156083906, 0.05508777641061055, -0.10829242313246767, -0.10294903273167666], [0.1481499704821754, 0.2941409503252497, -0.06162285971169022, -0.28316167351300753, -0.6937443144689927, 0.3697140735323743, 0.08896149344322661, -0.27907020448028935, -0.06927834509276873, 0.5200804940381696, 0.11212257088192423, 0.6366707787309595, 0.017264900534649512, -0.15000132972623395, 0.41461244195240426, -0.17940184818901866, -0.5449944845609411, -0.5078219901546178, 0.3331937615060065, 0.7436660410489525, 0.07493206197866657, 0.1616679136587579, 8.234070130431467e-06, -0.23011558967079085, -0.3762926962488608], [-0.28165677287767105, -0.22172242635587958, -0.21913996276243602, -0.26211969206292635, -0.6537275867962968, 0.4015557575474343, 0.22944087583699646, -0.45874552424502407, -0.10649342792291548, 0.5824816174554555, -0.5540835255703064, -0.09125855603999436, -0.05790408659766101, 0.17741720516399384, 0.18155193008729625, -0.29808452409954844, -0.21162154138605685, 0.15448670735326184, -0.47048284646180355, -0.47702655353542317, 0.48595868504842343, -0.0012530497675266581, 0.1321610992001489, 0.5744116611455367, 0.8826980187263187], [0.23844871090235334, 0.2310834942662064, -0.0652490264595003, -0.3124145294767237, -0.44844342347971616, 0.2862610794699729, 0.20107508701860743, -0.4096018916255247, -0.02421782795950819, 0.5579106953126552, 0.03134010772159686, 0.5304833552081624, -0.12034245885517296, -0.02849824213774058, 0.1866343626352167, 0.11182245966453033, 0.10925946076573162, -0.4417807985613124, -0.14660176040173678, 0.292947956425311, 0.5618396220388032, 0.5051880991650668, 0.28211834196789637, -0.1199964412058982, -0.2816243006468124], [-0.14825239240607466, -0.27252617660031286, -0.043428463876499866, -0.23487224577793284, -0.01197108174995362, 0.19189274355346503, -0.04889244959684236, -0.013347902080451923, -0.661467669408936, -0.47229449126972467, 0.17150664665373122, -0.30104107199434255, -0.6002246094073697, -0.11992112123428358, 0.06926249752239164, -0.16202270249649722, 0.5630556305762228, 0.4320156341810175, -0.1966923557759292, -0.5582181054201969, 0.6481501758732112, 0.10243712804341266, 0.29073049913861737, 0.9713086107096135, 0.9785809150070726], [0.2296495949771606, -0.08089160014778422, 0.09804355774052015, 0.09886295576487286, 0.452348835808167, -0.30418286256572596, 0.12009198766950999, 0.8602711906119711, 0.37311788165390986, 0.05829004878068269, -0.09793186444717518, 0.20391605571729204, 0.31694466589028786, 0.049190843116690204, -0.12920873044473227, 0.0909472303466807, -0.3046572174988442, 0.10103873146836381, 0.5125638996317136, 0.2963074833746897, -0.5716611164998198, -0.47498455808306667, -0.3786247918861407, -0.023792280549871363, -0.26433916836167576], [-0.002941596460276857, 0.0662757745174475, 0.10289244969932808, -0.08046678728811216, 0.22601593975227827, -0.018325771632322827, 0.08074432447892431, 0.593524758560584, -0.2517019975118691, -0.41412966935701806, 0.14375910807790113, -0.165932020520348, -0.11008611989121961, 0.10742692100901079, 0.2852493751772965, -0.38270286607965415, -0.08606309086716439, -0.0634433629138907, 0.5308821241383807, 0.41200411488465716, -0.09624713680653761, -0.2106126916977634, 0.025197191323749018, 0.13818648182040383, 0.13807142705282377], [0.47926702703591295, 0.7599662884652272, -0.13538192500525661, -0.34289929058018903, 0.1557512573746234, -0.14818263178953442, 0.2761056542189141, 0.2932508810168964, -0.10850571102613848, -0.32880237362084214, -0.12372313722335332, 0.2320353731720623, 0.13284412126053013, -0.3538554748868827, -0.07965410999137489, 0.28391533846858125, -0.16807012790567175, -0.9281493760008309, -0.012468456862147849, 0.7871910176307672, 0.3519527622541589, 0.4244961763979475, 0.05607279226990416, -0.5735236243377908, -0.5724602829864134], [0.24128243620241527, -0.06489392387600462, -0.08284547055442158, -0.13532359573474056, -0.04233886653982451, -0.09361473936848261, 0.5248345794117173, 0.5107342932674569, 0.27286650619170766, 0.3026902625661632, -0.132129454581955, 0.11887612612863752, 0.18480826608079992, 0.049449415789659154, -0.497514734049601, 0.8801968047094024, 0.2433622072414403, 0.051336230910899165, -0.1583134127631513, -0.10343388626327173, 0.047932780659195755, -0.15434024835968707, 0.07408589185872884, 0.1155337673444081, 0.734738930312079], [0.11721947467296043, 0.32685152684643287, 0.0066859117631796906, 0.045054805095519304, 0.4695228526914014, -0.06301315794287124, 0.30325953023667623, 0.5267277461466917, -0.11872646064258442, -0.5637567662362025, 0.24544941643056958, 0.296977499772909, -0.16745245369083822, -0.3255910046089649, -0.2918066907390415, 0.3818348521019549, 0.39261671533062026, -0.5511765516268372, -0.3200562324041716, 0.3057665413742547, -0.10780900580183975, 0.3068014096788566, -0.03192751051932123, -0.6160575468079327, -0.5937119123117103], [-0.3454750703995823, -0.5433033184588804, -0.33425163433894134, -0.033923354336145274, -0.4230650684107112, -0.3950742865434737, 0.06918562517301878, -0.22798029556508076, 0.17301675549950357, 0.4031022768476369, 0.8032733530323833, 0.7919774574244919, 0.08670873756864207, 0.05379604465667669, -0.4610964824921547, 1.2017525321916207, 0.6529554758728606, -0.2261499232892845, -0.44941394076731006, 0.017070006777566607, -0.7511269288349566, -0.5149067078177882, -0.34108164637871613, -0.2556272891965205, -0.36491612879675045], [0.06692771031094225, -0.24040056182038555, 0.26164666826365873, 0.1885996155999018, -0.0027887191938562213, -0.654880847472506, -1.0728712694681175, -0.28245936391123005, 0.4329154563788091, 0.4823235036747505, -0.7711154039273972, -0.9237460058923437, 0.16136024993477058, 0.15805369676319217, 0.06382992333514566, -0.7935279940483607, -0.47478770714727525, 0.9094128819066288, 0.6370805365395916, -0.3715310133815905, 0.33416108578644504, -0.38176237853119155, -0.13884687961037703, -0.037966682735960364, 0.012695875241499167], [0.1308765917085412, -0.01671652713980209, 0.028217311805677516, -0.158589310907508, 0.1484714696830849, -0.014149705934257878, 0.05652902141116326, 0.852551544760422, -0.06741194877685812, -0.6171521101377668, -0.37491050002352444, -0.45656984234294445, 0.22270128815543974, 0.09466199394948789, 0.34069096757536016, -0.6214641278944103, -0.686358729184121, 0.12635603521489422, 0.6805028875219876, 0.5424813778553847, -0.046527531374325, -0.5235682190512956, -0.15295052697560857, 0.3357435957344145, 0.2222617572973018], [0.1779520208924809, 0.061498485071029535, 0.11863867326038856, -0.08636846616050345, 0.5707844810395574, 0.09417835309482141, -0.37084168367570397, 0.3689734383837229, -0.6202086819241106, -1.1978507621558865, 0.12175017112758549, -0.637371758300632, -0.11837500047901028, -0.4421832348310533, 0.2200191968830943, -0.45406986020341356, -0.4885307063615437, -0.4961230457563493, 0.4459604732888809, 0.5924289025692491, 0.1667943153112231, 0.20241381977762904, 0.3768043555526757, 0.03245119758885006, -0.13255983246748013], [-0.28088780490061593, -0.3512546676811634, 0.11788978527340647, 0.28586981701574504, 0.140572364776731, 0.009080481357767605, -0.2219837484614986, -0.3524043458647439, -0.20215102687629521, 0.1804271824026638, 0.448994459055529, -0.2999223113889339, -0.0857424364013419, -0.07131259191650757, 0.13683088696520965, 0.0020634185872726693, 0.5183355706376579, 0.3709469303461229, 0.12208896578293295, -0.35325459515543467, -0.055513270159221424, 0.14780569112938358, 0.12119871685639172, 0.3975493345897167, -0.03615158897691227], [-0.17095562455022303, -0.22841931240836086, -0.00038183769433339167, -0.1879433386587169, -0.24148190498620326, 0.31446124341064935, -0.3677538216423271, -0.7849117304769431, -0.3537688569029919, 0.048254463747483045, 0.16907109894346722, -0.24022975451770642, -0.18422537851843312, -0.027723900099531476, 0.12963857471273535, -0.2424043479735282, -0.10835360425143813, 0.043266326062347364, 0.2579134762725489, 0.19052357662564187, 0.35196537148194834, 0.32127520912158825, 0.2968233144006679, 0.2311162149634643, 0.48096628488369647], [-0.4368482711488756, -0.283829427250065, 0.08983612093512683, 0.25778085156168534, 0.3941515825395433, -0.0347426855072388, -0.0006430059703019125, -0.3377960592718582, -0.49073228200113134, -0.3419189622014401, 1.0028234059329402, 0.038277969802685004, -0.2445832232142262, -0.44432764549567766, 0.20283738448004748, -0.019843088543722503, 0.38304012451073705, 0.2927488553558323, -0.2510343929636275, -0.6485760167555423, -0.4417380562298439, -0.0522532605075817, -0.22262201717694444, -0.6081631250743775, -0.7361561472497343], [0.16663171030961724, 0.4226964284153865, -0.23398611050073706, -0.05908102438560943, 0.1985407724611341, 0.5854921725204194, 0.9840790364361719, 0.12915606215024394, -0.5476725313753182, -0.49313087245900084, 0.5705082644022159, 0.9208981787137069, -0.5471980622384952, -0.3068637318168234, 0.27713646918878954, 0.0850480410823176, 0.13526874615805543, -0.5695779591912629, -0.2990011298485582, 0.17548640312440514, 0.09853795164482038, 0.5255915425882133, 0.18981765045062873, -0.20164832836309873, -0.3813031705121764], [-0.30674397058709163, -0.14002400110860205, -0.06392647025674567, 0.16229397617083835, -0.15212773241034053, -0.6626694934863054, -0.2500010530368358, -0.47048621095312587, 0.2890167076569426, 0.22398430750411155, 0.03175333349047346, 0.0464747192566354, 0.06473571771675103, 0.2895394254205289, -0.9960779036131983, 1.3532141311427894, 0.8839729937413914, 0.020813430793019838, -0.7612024868552774, -0.4171203814299762, -0.08820947929803138, -0.23762638211707363, -0.13015692591390926, -0.03495427881157123, 0.33015011201931915], [-0.19226991298046814, -0.28194256841501353, 0.22528373308509064, 0.24357403836347905, 0.5101528443738514, -0.12309581872734922, -0.008444246006292963, 0.603223284245273, -0.26819895353558576, -0.9681741320773167, 0.11301429556220992, -0.11292666518724204, -0.252459811808188, 0.09745817318764083, 0.31915349146445865, -0.3682955289343254, 0.06179928942691239, 0.653792000610457, 0.35454637213084356, -0.30600718997881954, 0.08202614570441341, -0.20488531424070694, 0.1958442857524992, 0.45874537335852844, 0.44894658593831077], [0.2640083666409221, -0.04629564641165556, 0.05043449486033272, -0.04637083664579639, 0.8818686335329577, -0.3322288682880227, 0.007455761858009254, 1.0173656735861847, 0.29900840414241553, -0.30065039087784745, -0.39110766956828347, -0.2753321869363542, 0.2098406612606134, -0.06356877638303038, -0.3739233103139411, -0.14851937579247307, -0.4877672840592636, 0.3353532556390385, 0.18400365874071034, -0.33704526410110713, -0.38995327346495984, -0.6798210382002698, -0.3712672639767055, -0.3238170797523362, -0.16933516711163135], [0.36758651296582223, -0.10382850883999957, -0.01031581277135074, -0.07420660353104168, 0.7284459249516889, 0.4555693443242173, 0.3113537046987469, 0.5747238864720214, -0.5401782350727314, -0.7129956948933281, -0.5008975532080528, -0.358596107344849, -0.4607739790506452, -0.5039419275520675, 0.1719091338709222, -1.2088826515586766, -0.5783944578222482, 0.568699538675649, -0.17969817816866349, -0.838750363364971, 0.3748220556455387, -0.218790196750404, 0.25451911777104286, 0.15856655148577037, 0.3459792152839273], [0.30839843159141433, 0.637149541417387, -0.031198922025272843, -0.26503460700216147, -0.37698936356197577, 0.10091082420957338, 0.24112356067526264, -0.03559548825339687, 0.17948192568407326, 0.3402591572843372, -0.6384360482746146, -0.0038635598821080853, 0.25631090511326565, 0.02646705223800393, -0.04412801276315887, 0.12704100932811954, 0.0075363467947045185, -0.6382443244743062, -0.01889831007576453, 0.4777987095012418, 0.8719445795741946, 0.6105122480607316, 0.25344275745810685, 0.31271147106739683, 0.49194489697442684], [0.0024483321637537355, -0.3494520841530183, -0.03753691050417485, -0.11208271858784803, -0.9032085811683565, -0.23338598308033043, 0.22741024905694754, -0.33762488585791667, 0.4218292126731183, 0.922215598521293, -0.1551309077981925, 0.5999147402238924, 0.19390505575900813, 0.46224662208109796, -0.008155034129819527, 0.24433958757565957, 0.005036497581507396, 0.41081384191556836, 0.09678907779780373, 0.1042297637425826, -0.2941551310641017, -0.5982109398675357, -0.24212665321218257, 0.27229085797320424, 0.28947065397740834], [-0.23684844096656282, -0.3619396346635181, 0.07463547424168078, 0.11286812681753029, -0.07053927327399175, -0.23359561154299768, -0.5050001343034239, -0.05881542967702401, -0.6044657297517052, -0.8628714472043942, 0.18929818830334727, -0.5168522542230741, -0.6519525210349565, 0.08306143686729381, 0.08323140985344035, 0.28564374528900294, 0.241530459537294, 0.11003790571570392, 0.4401021299852793, 0.20752332571893065, 0.48761106316973024, 0.5819838875102952, 0.19914829485678404, 0.10975006856396202, 0.29587739201118085], [-0.28807295849394415, -0.4285834344412367, -0.2129188377414674, -0.2921607729180273, -0.6447060645057193, 0.24080084303768565, 0.2092182751813203, -0.07179732997646332, -0.4270744299789206, -0.1531958030444171, 0.5537105650205498, 0.5827952053036292, -0.2252820016303889, -0.18326224372564265, 0.34333222917940986, 0.005918263029023335, -0.18155552053318366, 0.25872700035207696, 0.4017954995862342, 0.4793159242631603, -0.6576281431072084, -0.5007715886556253, -0.17937922742765117, 0.05199035462458472, 0.27835114508912573], [-0.16898576058737383, -0.3256752796126105, -0.07643104669984255, 0.030015921566804264, -0.22641781828483667, -0.634823983490023, -0.5684944562523648, -0.3931838883971176, 0.03331886390729421, -0.12955856586886375, 0.23441466116631401, -0.11817034057013204, -0.022417930899072607, 0.01801436777362524, -0.5405606068136422, 0.9159327989888045, 0.43944993045915687, -0.15347313560590747, -0.10005740094815459, 0.034436975471059, -0.3477043505335982, 0.009359994656865815, -0.2838033708050358, -0.2161300162657525, -0.5037066282305511], [0.3015720563149834, 0.27546073420120687, -0.10011288643342044, -0.2823142816478217, 0.24114980039258194, -0.030140310216731955, -0.07461456770181588, 0.5365006773957451, -0.21179718333466224, -0.25361600397520667, -0.39802504234645275, -0.3482329462008649, -0.025319941392860614, -0.24644486595485018, -0.20218024417705494, -0.014419397357832696, -0.34843237473692257, -0.6022139578276255, -0.43045765658182816, -0.0897302218633236, 0.08916129764320976, 0.21313883430693026, 0.13025596162938935, -0.2994468932087555, 0.11617667835139182], [-0.2421709476214998, -0.0778495320666732, 0.32575245290270816, 0.2664706273588556, 0.37735544630804463, 0.13659776184802852, 0.0750129891377464, 0.6128917762788737, -0.11726114337610885, -0.5329700049684928, 0.39912743314815924, 0.1761388196635787, -0.11842888077391286, -0.11514341646006716, -0.055777330111069154, -0.17504630822858475, -0.009345348041679087, 0.6772173353771573, 0.5062858378110557, -0.048966949143682804, -0.23286676138287632, -0.38273016354719996, 0.21891907355020937, 0.5346168763997728, 0.5578168630555603], [0.03083748311526715, -0.012511541507017828, 0.02997193252713383, 0.011918963024928033, -0.032921065847454745, -0.2801533432655472, 0.2842172000771276, -0.042662038981124854, 0.08879075484476721, 0.16610233171034197, -0.05388282050232747, 0.2436094204538545, 0.14237350311833993, 0.020742317389669352, -0.12016332679039622, -0.04641177332553621, -0.15754398170504424, -0.010966147248138023, 0.08483761333132823, 0.1627694704564908, -0.2473781263781834, -0.1680311855136225, -0.1796207459584543, -0.3330119386585777, -0.6166509186668576], [0.3909673776394484, 0.15875957849405897, 0.042761651263576596, -0.05518177402900049, -0.013149868825734334, 0.02898984801153985, 0.5544570101042078, 0.20533602658946587, -0.004099225813240144, -0.015481279952838756, 0.05508035213777328, 0.28180109418523175, 0.22300761174254663, 0.1395125837575816, 0.3001034420921932, 0.0007744558288259502, 0.05142569241796153, 0.03256260182601518, -0.11062624845702004, 0.18342585521403135, 0.3150092372760119, 0.07070058627670846, -0.03148034403050128, 0.0727094970095722, 0.13173724991690813], [0.03490683855715913, 0.3064419554706172, 0.1379306102539934, 0.061146052720896564, 0.010588978535295073, -0.4480967637306012, -0.757537612663781, -0.5318113328428385, 0.05010731791843646, 0.3351577122296415, -0.3277928254285397, -0.5359953479602989, 0.09407278443996835, -0.12945753527945092, -0.3759186223177377, 0.016141969685515088, 0.4741317905822385, 0.057287783006166985, -0.1522468730062091, -0.057779745354227675, 0.695254051733544, 0.549534146810378, 0.12608280406332276, -0.24095056159273845, -0.45735245851952283], [-0.22504186436139123, 0.13667281992505312, 0.17654434480794295, -0.07213038096482173, -0.09633191202460868, -0.049404591674558754, -0.17805469590249356, 0.5882595145564068, -0.15639396154985782, -0.6118076823764954, 0.11126963547702465, -0.2843970477157426, 0.07772466311767297, 0.27484977398603255, -0.08978108379438102, 0.464988970231705, 0.0986863680263426, 0.05147759548006426, 0.4887008364548715, 0.48254532649023724, -0.019774040887388267, 0.12541514767484904, 0.31530108295662534, 0.7701368150862291, 0.8484319750683741], [0.0906703925280178, -0.007854685301844152, -0.19437793783635318, -0.20474612168924278, -0.03656983750317403, -0.005861019048323539, -0.06251803246938224, 0.2688999643813694, -0.35983381372135287, -0.44849637535888276, -0.39684483866447584, -0.24755162771221206, -0.16479632456498672, -0.2648032871169589, 0.27311169383621187, -0.1895818991278371, -0.4271058238172941, -0.3190482243820508, 0.06209917841281102, 0.45028758570369193, 0.5432873209987386, 0.14984479237241782, 0.17520759906768912, -0.06353894125497914, 0.030400849229577337], [-0.4368942816215334, -0.2724499222113681, -0.05495688591397569, -0.18609272384229086, -0.23012984152351013, -0.01734773728373848, -0.2998844781633765, -0.3425787441464383, -0.5810029369485725, -0.38465316274184863, 0.4093082487497705, -0.053121542713590174, -0.48028820641172343, -0.3277949942665389, 0.13406845161236722, -0.1335813074079623, 0.26193358755910084, 0.2040242461458987, 0.06592354824328824, -0.2672856740540147, 0.16954112969877944, 0.14047065446361579, 0.14917166008616764, 0.3124005370195661, 0.19065967247086868], [0.08677493910374541, -0.08129015515583089, 0.13216552792287475, 0.05426073428393437, 0.06900039112940763, 0.02321701913534625, 0.12702759851073342, 0.14176013592225398, 0.27661963831651193, 0.32848076593270265, 0.2847164874961756, 0.13254500134315653, 0.11712545387152093, 0.0838023214120987, -0.002502690441332634, 0.207238003855335, 0.19019857677894783, 0.15720641796594031, 0.08045060802219578, -0.10959125815045574, -0.10323783605980606, -0.2101975806555756, -0.13844429273563974, -0.07579496782395624, 0.03448112064569583], [-0.12318965745809529, -0.3561385205252039, -0.11465679657726603, 0.06040420698174602, -0.20654473983930632, 0.017676390066320016, 0.19144563343998963, -0.4986390698850735, -0.23026249320347794, 0.1263906096349549, 0.5038930322727705, 0.4267346508684436, -0.46350134942037957, -0.26052935636685165, -0.02354841103251265, 0.3318335180013962, 0.5306635114773549, 0.07640953637709944, -0.5166807725382245, -0.4686371680039775, 0.3021892403749056, -0.017957040900241267, 0.08455457355576987, 0.06186088276369319, 0.14221276493236484], [0.18141249931231448, -0.09232063723719706, 0.047372555388350265, 0.22380312441358785, 0.5544371541455457, -0.1763953736662209, -0.002300352410822444, 0.47845866335314163, 0.5532315818718996, 0.292837138423974, -0.686696839630399, -0.5543252250908566, 0.19751473759100127, 0.0006083607274937095, -0.6461339110454813, 0.19510235979016732, 0.07397814000822224, 0.38020639511259247, -0.46079275104237527, -0.9370091540160139, -0.12006888064596197, -0.37820001370072887, -0.10902373218605184, 0.21728092447412758, 0.7170434040808513], [-0.22395375412208526, -0.47327111194955523, 0.22330809818990977, 0.13368836288045377, 0.4973550322865394, 0.40026223362392405, -0.13540602486717981, 0.23456255718699187, -0.9053512468883869, -0.9973030809247116, 0.42836845018786496, -0.3069910187780424, -0.454185966386204, -0.3776706809270377, 0.6389959566384747, -0.8205239817125203, 0.15099621682801231, 0.7946733781681092, 0.3834819739880132, -0.4748604151077343, 0.2611630012821741, 0.2786622000302616, 0.1854033799314156, 0.31491924581158937, 0.01003890349739481], [0.031111760989895793, 0.04047784991870039, -0.25335725691718314, -0.21730866608757618, 0.05201800703015537, -0.4621425916478003, 0.27014193138365583, 0.2408318080677415, 0.17362760067545327, -0.0486162427706389, -0.2827536573945976, 0.031133398371121064, -0.06375110249862491, -0.18646313826225538, -0.5032717723755359, 0.5001059278916197, 0.03447268915790988, -0.17025533886226565, -0.5009218060602454, -0.008466311808351067, 0.1376470060571809, -0.3173406147359983, -0.3123088953168329, -0.491559317690942, -0.556570272143685], [0.25283243347273127, -0.1664691811988504, -0.03729226722508625, 0.010657936664288423, -0.1992935319037143, -0.1293031694897886, -0.1259745199936952, -0.1335387985065437, 0.24127505678808675, 0.4074818232494354, -0.19393245401632966, 0.2969423392055777, -0.07626236139465595, 0.013182273416690227, 0.15593421479986327, -0.12196655366752392, -0.02653893740875773, 0.4795542781129056, -0.01019018713507935, 0.117962498339972, 0.13659482035679796, 0.02573310848415183, -0.06312479877535032, -0.113825811096421, -0.002268502982498245], [0.06145659258925168, 0.0974148304205749, -0.1966774425026772, 0.018364698493140465, -0.5415383302492744, -0.0464686109154739, 0.07361289118694507, -0.29514720607594697, 0.27873075172438805, 0.5673023253928723, -0.15462225763663862, 0.3225572825206223, 0.017724312637919765, 0.1926343942918643, -0.06959453476621781, 0.3124399563352009, 0.29182419532081866, -0.09706554494387662, -0.09587167533392814, 0.09744273573733626, 0.022502196037482533, -0.03502357163647984, -0.05868987541965785, 0.07786225260210634, -0.27760604013413515], [0.15319903535421728, -0.3553301716005771, -0.23927752698175897, -0.05289449068904512, 0.1564936840888359, -0.7142776899919163, -0.37736761236247696, 0.32684692706618756, 0.15644792272177926, -0.3636172427377792, -0.3091763021544242, -0.5423982545876181, 0.02208283096976832, 0.0341124923284586, -0.5013634338202996, 0.5412708090954398, 0.03250279657106524, 0.022581483430981188, -0.08937931093542607, 0.13231369896747136, 0.025525433906359755, -0.3899776501425986, -0.18916052175964726, 0.033198949836263425, 0.19521396036269076], [0.18370004832187162, 0.5206958572229675, 0.048441963675027566, -0.08273475599994809, -0.6113606112474618, 0.3268619850292687, 0.1807374658353304, -0.25462536167677574, 0.1722089071492918, 0.6303622608524166, -0.11534267714181264, 0.47133541568950704, 0.1543273684518295, 0.18092261179739122, 0.14957472707169386, 0.19097987316689152, 0.1303145228776744, -0.2962610158755211, 0.07338839110230988, 0.4560304668340893, 0.17760957716082332, 0.5141623080036609, 0.18778647663156897, -0.01786968058828341, -0.026210283785583353], [-0.15687550577356363, -0.3430868441249235, 0.07801054596756334, 0.08272740712210967, -0.6589300858107281, -0.018488970850982746, -0.25399239184657396, -0.5616575550130426, 0.1548301985899451, 0.7109181970319466, -0.429667479927998, -0.3768618424139073, -0.08728518843448148, 0.14261773467792763, 0.33875422461386706, -0.4099536316417152, -0.25521511050809664, 0.6350627252562262, 0.3596745009790414, -0.09789792083332294, 0.4246235417049292, -0.2992956611948165, 0.0044311191336895575, 0.7624433005220868, 0.5302308513621177], [0.22183532547998863, -0.2673889295101208, -0.09516798674367889, -0.06118101809915952, -0.0026107411802286026, -0.04853257114083711, 0.09785871999566023, 0.36090558726178656, 0.16342219259564217, 0.04696306813839373, -0.16921187926201214, -0.04040631231708815, 0.10792313356768596, -0.03747473089185056, -0.16823827854681447, -0.3493955922009798, -0.3359282885577056, 0.27348337560084945, 0.15029694829623347, 0.03940103325256051, -0.23725936735154007, -0.5301607399892061, -0.024008010501105775, 0.01645723337677243, 0.18987762815489728], [-0.5773435513870638, -0.6082608820558897, 0.09320348419004336, 0.13875039393456373, 0.6951429424647698, 0.039584545822747376, -0.32507508406590513, 0.46321621218025416, -0.3265139228844476, -0.8685485538894767, 0.8067467095343547, -0.5454137221748194, -0.36133858571770217, -0.33300231807985603, -0.22744983947917094, 0.3229741006055047, 0.3251630873859271, 0.27438606033136, -0.1419251264447049, -0.688436535262932, -0.7185600208053496, -0.5284697934578613, 0.08927985535727817, 0.3906189784588334, 0.5425661468375016], [0.09616384890994961, 0.15521581189151826, 0.19281170806965606, 0.3231289735621781, 0.4522435663102754, 0.24709530933298438, 0.5079579376801939, -0.1790475121738628, 0.47918644533506627, 0.6898326593596724, -0.018716933852896557, 0.19146815577660856, 0.04320137479769145, -0.25067896477597695, -0.02074585743261479, -1.0602486467440915, -0.10527733107322965, 0.8702400873565259, -0.2472145187775212, -1.075056737161968, -0.21625462014214616, -0.08448616136111477, 0.0005605785006289265, -0.06949152895134907, -0.19371478091140118], [-0.01617335102311258, 0.12733982170981817, 0.011538515752137402, 0.09772930605630602, 0.016769545177129197, -0.037969079522936454, 0.331457194338768, 0.03683368867326556, 0.4583999854771993, 0.42773647565035783, 0.05295598320115571, 0.5313907329632993, 0.18381670978505826, -0.07820915076546096, -0.205070535649233, -0.14561201736209117, 0.04473684633689174, 0.35994910967190974, 0.03522718629563754, -0.012917004005378593, -0.32133451675676283, -0.3551349866282354, -0.33169999986095805, -0.35822277480363873, -0.5445112967092665], [0.021125767100962527, -0.08225337237014423, 0.0744032039964453, -0.26275077361166027, 0.018364809325895706, 0.8979847812203551, 0.4038619105196981, -0.14901921563596676, -0.6923372339424047, -0.29168446454276814, -0.22750466407349604, -0.013207635956442587, -0.6113964715491923, -0.49667154018311077, 0.8213666428339331, -1.3683200654192722, -0.4270808479736696, 0.4995538114751704, 0.10748253364804207, -0.6796610920388857, 0.47288490920391785, -0.16835279890957058, 0.20584657054293923, 0.2516341186932003, 0.23469697418415447], [0.25660315136108813, 0.15928195414796845, -0.22515419513000312, -0.28703826151088013, -0.44983383676902056, -0.16183245300034504, 0.20263105874249707, 0.00766019778126328, 0.4810571418962623, 0.525644255289542, -0.8542554821696772, -0.24788000125543022, 0.2764765866809827, 0.3179536491009329, -0.4303483954981889, 0.47730176392684026, -0.2571534233323983, -0.7680554208862607, -0.3149767259435413, 0.19465009390075963, -0.10171046594961441, -0.10777884515684408, 0.18011252445291032, 0.32268509842649185, 0.7841281128573866], [-0.02911062946915337, -0.3096330161697807, -0.1618058389295605, 0.18488675095291754, -0.4184133223030268, -0.3832299448708031, -0.02814508695699989, 0.31174095072531044, 0.5399230001606156, 0.40265924906423045, -0.09493487359526208, 0.10999507317041798, 0.2772912625577016, 0.4191180248836072, -0.023580512521916414, 0.46008559700852825, -0.13824314688406164, -0.21060298414817522, 0.6486376974322166, 0.6578223566230625, -0.6082634977226262, -0.7292664668248563, -0.2805530433650173, 0.2030460411713972, 0.4333259866546118], [0.0022504200328346104, 0.29362692959864906, 0.005338884654778748, -0.22652714931576776, 0.1648450574723257, 0.1967281168641901, 0.11141532590025931, 0.004815777284768809, -0.12206772456133637, -0.13447544134431494, 0.3870865578716723, 0.5070259896596733, -0.007914769539904408, -0.48157226621249266, 0.2588619109554472, -0.2537191238095251, -0.14446181293047203, -0.11819691174471904, -0.07323287407271192, -0.03592767485812278, -0.06649445484702425, 0.008810067272395795, 0.09708424271385624, -0.6141120842962768, -0.703042868109563], [-0.09182382558742445, -0.1180323419013692, 0.25545229201018704, 0.4081237599810502, 0.40663028692182496, -0.04743274128786989, 0.1246265605657519, 0.30315510793636374, 0.12795457557384315, 0.04842406636888488, 0.8985895853458159, 0.7514845839980059, 0.43203701987287657, -0.1566989428462, 0.30881100464250694, -0.5972385659686784, 0.028202705685358577, 0.632928497987603, 0.6195611579849034, -0.01209919949293005, -1.2167805368024835, -0.5185887404852378, -0.2710481955462045, -0.3190726024623937, -0.7087139047527495], [-0.346901415025523, -0.12021426537828671, 0.15937413596920935, 0.2980744124603118, 0.15749700238851438, -0.24395151857606098, -0.6533041109546508, -0.5371604182092774, -0.218810280480364, -0.014534007588829988, 0.8956550105848664, -0.38846315501083056, -0.15765600492162496, -0.13008087136846747, -0.1986713996818817, 0.2794701262663061, 0.5145695505149442, -0.040346830539381213, -0.3205980868841308, -0.3254275581555842, -0.4903878529936383, 0.3454562007468276, -0.0017723058553073558, -0.3833153555697397, -0.6146597118831485], [-0.09765507238151735, -0.013887513562349367, -0.29645757833101644, -0.264544088072991, -0.3633765410431005, 0.3108629020297203, 0.7520509535295609, 0.31872639410215264, -0.737623774287914, -0.40113193358750726, 0.3887750978074821, 0.440450475343682, -0.35823041545305295, -0.25274855845892863, -0.16913584534892936, 0.8005614716109238, 0.0923329135577911, -0.9069728175599796, -0.6650217310076755, 0.05646320264492813, -0.1214017859330915, 0.17855912146411995, 0.02045709587197399, 0.03666943211268527, 0.2584928319477678], [0.1808157266211957, 0.08010244589096427, -0.008578155535792035, -0.22072091179265102, -0.2413212784948631, -0.22286935103218988, -0.18739424485435094, 0.24552640505976983, 0.2047742272667168, -0.04008901046522538, 0.05949585823517446, 0.07911609706017995, 0.4379971329381385, 0.216650667596733, 0.31998115887415723, 0.2547966861905557, -0.494836608297439, -0.30564003814835894, 0.7762472681010588, 1.0719206836077801, -0.47065957335130293, -0.13048965141472071, 0.04100043064795694, -0.1281966353466715, -0.36583277219402255], [0.07765567399955214, -0.01093587695369687, 0.10417234085055928, 0.07547154694511646, 0.10445182466262289, -0.11847648812000235, 0.1144358470351723, -0.14233402940091236, -0.07346235342878192, 0.15582180972724508, -0.023551716243604075, -0.07899747432795991, -0.2283283318115235, -0.01258635688016264, 0.11332475369449108, -0.07559664159262187, 0.14622717411116967, 0.24959896504875842, 0.08851424831042293, -0.05647678250360018, 0.07954034642274506, -0.03922871710258038, -0.22698894329991037, -0.06223949906951581, 0.02422659164960403], [0.021539469955439358, -0.19506525559606974, -0.02680842492636804, 0.20853715185408783, -0.25869125050832853, -0.1945311143148112, 0.28513304331797407, -0.17959029140653546, 0.704735792262544, 0.8406126361232706, -0.11745186533312751, 0.3175761420651126, 0.18880773257071956, 0.0985902546461616, -0.37144532461646057, 0.16818746999320658, 0.5083462005559203, 0.593801254886478, -0.3342349777295484, -0.49512965049113367, -0.3604327009446622, -0.3144762177361277, -0.03732829718941161, -0.07801667370695718, -0.0801484630497904], [-0.13962601674415584, 0.06601176092833713, 0.0933607990153656, 0.11042235945639141, 0.42595865864530474, 0.025483471345305608, 0.18478530163737109, -0.20485438084507396, 0.34284812143956, 0.46553693409076, 0.18137431377717755, -0.04760340482253228, -0.005295189952340944, -0.116744977909499, -0.2765898760821675, -0.073601286049288, 0.39164918593225106, 0.500986068501361, -0.6692134651937092, -1.2548345756947898, -0.01708419745547367, -0.15280411857566192, 0.021768484631058016, -0.4460458729246169, -0.05694529059248058], [0.12426100861411446, -0.17958375655810851, -0.07838226901585602, -0.030208287341841878, -0.15640204351241538, -0.23291338303843262, -0.2297222622049227, -0.12987587058267552, 0.10274257456252607, 0.04884089558727294, 0.16055353747748607, -0.020199739425560914, -0.1486344212235073, -0.21104016164969208, 0.08746894527768899, -0.15710168433611704, -0.2709235291196449, -0.05847285993429893, 0.3308602392069072, 0.27177062650635736, -0.5143672549814046, -0.3200757274624501, -0.2463740373049855, -0.15843344393391687, -0.49145012797750875], [0.0011833025548303076, 0.2632110980288148, 0.25917409192974594, -0.03558824094273746, 0.02119609027453064, -0.15909551364812174, -0.0028431229605574326, 0.511612338620856, -0.08742666015264805, -0.6239283330262874, 0.35730216377653373, -0.0022184676556044514, 0.05667824105177067, 0.2942295537258459, 0.09972613741528141, 0.2016757413536765, 0.10590364160767617, -0.09977630165728621, 0.6689470692737416, 0.8188200218108833, -0.28702746855044287, -0.15971279803550992, -0.16710470333264169, 0.19053381457870752, -0.10340098068075097], [-0.13228206921377045, 0.11968971445531142, -0.11327665883817774, 0.07504159882918623, 0.12508496302266314, -0.021297231540956633, 0.1820262183498009, -0.056584075170165095, -0.13362270707161858, -0.0436847692369797, -0.01234147417387559, -0.04775105640919889, -0.028376497755495986, 0.11142149343766, 0.09000120073117299, 0.04072601409541778, 0.11084338329582406, -0.0428007309167523, 0.10043304026646574, 0.2213303094216148, 0.06382056275535704, 0.15774794061715564, -0.023771725109863327, -0.04965754477373239, 0.10494002889184793], [0.27118241370991103, 0.3993022783320489, 0.15120927948903196, 0.11766556748454989, 0.4621898069205388, 0.48896783933515386, 0.36162472355542646, 0.18906596411631027, -0.006182511236511156, 0.1631735130107043, 0.33937720065949817, 0.39708041129097965, -0.09976643397041159, -0.18841157714520448, 0.574060338638152, -0.5390569477060381, 0.14278814645359408, 0.44604558176484166, 0.128267487978199, -0.06850059197580845, -0.161894576145546, -0.03818234821036568, -0.055594757662870094, -0.3521192649758729, -0.24538719700839232], [0.10328357675432143, -0.004881662298012225, 0.3167261321453048, 0.2191207980293089, 0.18869930099134255, -0.6984341796726597, -0.6669022729094294, 0.6615551601259003, 0.5670180148513442, -0.09432394491334839, -0.8512047353816173, -0.9349346972748959, 0.4369199369885799, 0.3706035537232583, -0.4305549274170634, 0.23555723253091262, -0.1338742160770188, 0.4289812194529801, 0.1846432859669522, 0.105080045850985, 0.08855893303368072, -0.3874225356019963, 0.008012284280363366, 0.297220622457395, 0.5408825613900684], [0.1536953757805007, -0.021353385954723567, 0.12486242097207956, -0.2041862847629986, 0.045413004482711995, 0.2539514099647967, -0.09160766111908439, -0.018344963918232617, -0.26045432286666487, -0.36584390159473085, -0.44761642892435555, -0.6634589351120641, -0.07078012677844826, -0.046126660639459145, 0.40858874683725144, -1.081220108456157, -0.6353706073594452, 0.2851524514239632, 0.3406157628249673, 0.09042886888756038, 0.044395131364813586, 0.027544214243713817, -0.03761963797548612, 0.22916465097425814, 0.005572463397565759], [-0.055424517726189754, 0.04805663342467449, -0.27796456343590525, -0.21186571592008044, -1.1781477679175938, -0.00064446172352937, 0.2804052517948797, -0.6859904727399208, 0.4618288954567461, 1.0475563763131202, -0.12935993914089727, 0.32572083053935025, -0.07076729770002932, 0.05138136255699471, -0.3454883504307936, 0.6614645115595552, 0.31136713216021616, -0.3910537063980635, -0.42915892684392826, -0.022000910615562443, 0.0753866471626689, 0.10681277787123629, 0.158052492033285, 0.2750684373559807, 0.46792391898137464], [0.0944707472937181, 0.15353320075620833, -0.17144467704365876, -0.11860597049352017, 0.040622828244566034, 0.2967807322205027, 0.6211338893484868, 0.15813041160362468, 0.0035627050754448485, 0.2369894830306928, -0.05043625057299285, 0.20999339085145652, 0.0881466553047475, 0.07804136817075978, -0.023608291877952024, 0.4559501828632269, 0.28253493316013445, -0.27929020134621596, -0.15500358338617332, 0.08223065574873793, 0.10155817501970901, 0.2255244397502148, 0.35241459564459526, 0.16183373847445684, 0.5066816926863461]], [[-0.3241702340640067, -0.6504903030716652, -0.08245622823250295, 0.17363976614151788, -0.21142746028131332, -0.35101649987755185, -0.3705424669826043, -0.07175051169542251, -0.2543622379141089, -0.6006526442763905, -0.6685403135087339, -0.7544367922735551, 0.1943651400617882, -0.6714190783354435, -0.243461123556933, 0.5898851786393, -0.7326193796836765, -0.7156782917619192, 0.03435817704161792, 0.2014480368882596, -0.5363010253741535, 0.24628345774628763, -0.30592048754842793, -0.09393117152800604, 0.48207205474291565, -0.557943043858368, -0.1145862158836412, -0.28636792755561674, -0.021720358355915903, -0.20164412162283027, 0.1498537899230144, -0.6020286260635475, 0.1144097785475221, -0.06057578535263667, -0.42635106318144256, 0.044138071101501315, -0.49990527997753664, 0.4174703707549518, 0.13716274158063643, -0.05972143509919241, 0.26014543677347873, 0.09165667010967266, -0.27979755673649576, -0.6696950152260004, -0.06707172380658391, -0.7083798153580282, -0.008972923264875149, -0.49963129072171436, -0.6489463951441925, 0.24879757921335138, -0.091838149019063, 0.18350074200146207, -0.2646378683907027, -0.7637710923513337, 0.3774667746727197, 0.2643836770299969, -0.46002855782439345, -0.4380249614413394, -0.6517157583004699, -0.6888190254793468, 0.49728772483924627, -0.012040981601854085, 0.2880103811680297, -0.3652256129900752, 0.4844725796205587, -0.6242245274211422, -0.7542870822262953, 0.21954093071629482, -0.46160426412479333, -0.10874004336545491, -0.27816324633929534, -0.5767365021014411, 0.041414220073470745, 0.22297477973347715, -0.6894295023271356, 0.7338450440906071, -0.21829946030460695, -0.19796157216601917, -0.7514767380186427, 0.4551683623577494, 0.31902860808275374, -0.7990900289602606, -0.238423482352064, 0.3393661315012228, -0.2737946712937511, 0.703076226087404, -0.5358047061197247, -0.5462547476217045, 0.28976441090653543, 0.004492884959367647, 0.39003992138800136, -0.15613126815677095, -0.4112706654365946, 0.5803123583510297, 0.12591109911020823, 0.521830913607971, 0.20936899007843623, -0.46776653210638613, -0.07435414572813252, 0.4679359456552121], [-0.7432553593990683, -0.5362151836387742, 0.05933093947689812, -0.009651630187691265, 0.08628418603547393, -0.23829916244370605, -0.173881058370276, -0.45944304908966127, 0.05841496695016617, 0.016979392499450508, 0.528331674864821, 0.5786469171218432, -1.0525949512402715, -0.284708179852364, 0.24549992048950578, -0.47817604504799377, -0.1060234028686981, 0.7472107517624609, -0.7483194693400463, -0.2845501720410281, -0.2756348364393432, 0.517543858776382, 0.3752689986517024, 0.2604017341721841, -0.462640659412325, 0.1981147081976893, -0.07770329493476544, 0.038864374085695624, -0.3120302207630012, 0.05241373715712025, 0.3093990959531215, 0.35532081017680395, 0.17249905180516725, 0.29502940961454266, -0.4131061250518927, 0.7742859125635609, -0.4768060817899843, -0.872792650323296, -0.6949436110676217, 0.5662567268298675, -0.3738106481355772, 0.5730749638165406, 0.6992795103261076, -0.1890191370741824, -1.2898205913166148, -0.4305822266383786, 0.09944597700057652, 0.12026554256134007, 0.7007092373789018, 0.24405995601989994, 0.6978459185717206, -1.0439993092248765, -1.1122844499937647, -1.233876451399086, 0.037038497020578424, -0.3206297678642408, 0.3447807076325347, -0.3162589936151216, 0.9796934411596963, -0.06688131936418257, -1.2431640993054287, 0.09956253491285229, -0.10173614950171299, 0.898847479406909, -0.7341015721967202, -0.09212132203988745, 0.14351617494037114, -0.08039317494799264, 0.6515339604287473, -1.0930051675485815, -0.6103143762521595, 0.4932184834393627, 0.10002268638539032, 0.3853133648069016, -0.02009353379651668, 0.2703044472662421, -0.4626561402885769, -0.8187940669962355, -0.7204658018313994, -0.8372395030404016, -0.014778507260512932, -0.6720646815996992, -0.41353515898713283, -0.6830735733791866, 0.2852007282373887, -0.6747635024672548, 0.994758906196526, 0.38448062507035724, -0.21375368979817708, -0.013067316158496739, -0.11762678058987151, 0.0330206688607262, 0.022382116382181457, -0.342150970208938, 0.027678003408770736, -0.28751587522515226, -0.7114140141515317, -0.7969387572746098, 0.592228687374451, -0.2849666373217379], [0.6772262657470544, -0.6171043023232684, -0.40792656782763537, -0.10748630759007725, -0.22524958036130133, -0.2991024791030614, -0.9408870176143247, -0.2808041965355926, -0.9792324032334028, -0.4446494276855725, -0.526759239983073, 0.7060089911927389, -0.5994921143252224, -0.2635101716069643, -0.29004880382931225, -0.7175165161814556, -0.04894669588033041, 0.41869726396197093, -0.10304527894864873, -0.0028964475974474235, 0.595579942275524, 0.590364340939344, -1.3552627959753512, 0.31734525663748125, -0.27525305997210525, 0.5550812349694804, -0.2196677910191543, 0.07488694917391327, 0.48496380640772263, -0.1110332814867027, -0.39171367083885167, 0.06093865272520914, 0.32434091174326035, 0.6507036340771291, -1.4021710351814, -0.3960431323439143, -1.5569288518566045, 1.02882787766617, 0.5422116115012117, 0.8262231739110343, -0.40955355073486643, 0.6086863343357162, 0.21008397915530552, -0.44197777938489047, 0.8124982165272955, 0.8708015448837758, -0.63603128428453, -0.5654598149302978, 0.11633525271933516, 0.2558345075667177, -0.874918285275589, -0.22131410778289387, 0.6851742190511019, -0.3876536718028742, -0.6903384064458605, -0.3443924603787738, -0.4252743982242459, 0.6515673507620886, 0.0630697324236139, 0.1814445415876508, -0.12434565208157271, 0.4421269777867607, 0.02707727536538625, -0.7418080514772645, -0.10642848316891029, 0.24478525353355898, -0.6447368545277068, 0.07013851017574257, -0.7971283441913439, -0.8881567890541519, -0.3358034186283182, 0.18915201574849286, -0.12570964155878445, -0.377569075683607, 0.12055586280628747, -0.29521961998647694, -1.0679036034252647, 0.19416313806038368, -0.0474054284873814, -0.8027285030427588, 0.2664541327672907, -0.5177482297084697, -0.3656411984294331, 0.660101867169653, 0.5057855103041491, 1.0404418585866393, -0.17060782692535623, 0.1319525623123503, 1.2928674860289855, -0.11579528991365019, -0.8296305276025608, -1.1063601509568433, 0.6680909257998726, 0.9127918562350726, 0.030139522317804437, 0.20082382076874553, -0.33547489034841854, 0.07051278795104668, -1.0362678860152552, -0.4199071386344727], [0.4532708401509852, 0.9106289412783024, 0.13670592075604518, -0.5340989735882454, -0.5542412529197911, -0.28341111833799265, 0.6789041907947461, -0.46348361272937283, -0.3248163515188583, -0.021118569736810013, -0.5558032217316692, 0.5206011114292637, -1.3220154838251148, -0.2239264877472038, 1.2153144188692728, -0.7709533771569022, 0.08222741230603879, 0.0755829670905578, -1.2387571540087898, 0.24712288098521365, 0.017357799639728503, -1.2605865341288165, -0.31740598045003604, -1.0307703336910363, 0.30853110269652556, 0.8826771634076154, -0.43188181370454254, 0.061082570161065525, 0.06720026402831093, -0.36170456004998797, 0.4593159345744634, 0.23974298258738128, -1.0022083948685985, -0.554400968327133, 0.08187567248008955, -0.47151844148480776, 0.5247491148256632, -0.20270951339840956, -0.11752250241420235, -1.0207119698448186, -0.07834420033989217, 0.002107599332390706, 0.33132912787284224, -1.3220658792353042, -0.5140983233552583, -0.531629220414602, 0.26222378054450995, -0.30392692276772487, 0.9466868371380144, 0.7912572327912823, -0.25489092949085973, 0.46466620560532884, 0.028287971401692223, 0.982400582105289, -1.1728436555642134, -0.10796458639851107, -0.43941331154813157, 0.5435341770292718, -0.5183144547662759, -0.4133070948388016, 0.4508627472566809, -0.1684183201791407, 0.00607985580562342, -1.1148637156328685, -0.573695214301873, -0.5564921374161251, 0.2383333424715386, 0.15878968988063785, 0.6829735823156635, 0.007717592576529528, 0.8699101104842568, -0.1689835459824026, -0.025019074448839017, -0.3494874158278726, -0.539720521659269, -0.7272571963443533, -0.38073509671226746, -0.003121019472315507, 0.868403098057023, 1.008571911958016, 0.24908060183262662, 1.147324964911781, -1.0225788968976863, -0.6701246418942377, 0.22926102364917694, 0.8624434332227118, -0.02484064181731082, 0.5425520076663599, -1.1169143906371943, 0.024927683382720667, 0.23481824363020184, 0.862729956599465, -0.22008356277516386, -0.454793129110771, -0.08135159977853802, 0.6247009419062762, -1.3932813027779585, -0.2566013360685348, -0.47498748823805526, -0.11983382985716957], [-0.5210421159370945, 0.6347386285318859, -0.08378166311156064, -0.8070524940212322, -0.23768292344911643, -0.16999759067939063, -0.27380054891048655, 0.2922836254154168, -0.10535111647922299, -0.9761892281150443, -0.7688190480569063, 0.2353886332283253, 0.6293206825328737, 0.14406043872117494, -0.7253721489476166, 0.6369651514622038, -0.9934792475457103, -0.2882957858075481, -0.45574448316340616, 0.2859249368775154, -0.32803740739205883, 0.8013815878896376, 0.10993087974617416, 0.22064861516360684, -0.5269216648687224, -0.018605047130609415, -0.1170874511025565, -0.17410435435272736, 0.28090781321690744, -0.0771258199558453, -0.07913473884312786, -0.08500464139566005, -0.24136060343344842, 0.501187545103135, 0.4877809175827877, 0.5667749104404153, -0.11419368569888878, -0.573190473476379, -0.1685473923236326, 0.6878371570942767, -0.24637580319537802, 0.08058964225376167, -1.2525181455786103, -0.5344036007372153, -0.2874858063728967, 0.5000489021558343, -0.27785602004326054, 0.263878938908959, -0.369546291633596, 0.7207998559470217, -1.006679714839436, -0.614128723839715, -0.3651635262335139, 0.7632078002710716, 0.9626454056017335, -0.9077335563139404, -0.4644930049643712, -0.7910486405473938, -0.9896762483132786, 0.8002175854818092, -0.5530690115560076, -0.3602066161719428, 0.16048502002757264, 0.10465357450564823, -0.32822203442315545, 0.2856035565661022, -0.30585381261579736, -0.17730227611810845, -0.2802473644630493, -0.07218644879936546, -0.04234862342814257, -0.37425818659907023, -0.22286301879226847, -0.23522543471243904, -0.8250452883038873, 0.4082649730707472, -0.24143963177572467, -0.25224739876928887, -0.653254346040908, 0.37841131490067503, -0.38408257735779644, 0.8577376339008655, 0.3867552440620385, -1.008902870952782, 0.22475175146002482, -0.5520494728370509, -0.24166358423033352, 0.3748706284473818, -0.43820825961367005, -0.06742248712666767, -0.647445557845467, 0.043599851814153864, -0.48817772107590507, -0.6031594267924981, 0.025109602261063388, 0.2508255576204375, -0.6755888996951426, 0.3483948314167099, -0.048554427402323075, 0.38754819598287976], [-0.24440933672385579, -0.6878029046976353, 0.478158415645827, 0.3517817700260685, -0.044887626483421574, -0.44119267402489054, 0.6889563841956255, 0.058347240048940076, 0.4848717730726145, 0.6648551811750674, 0.7191377790765017, -0.6709006114335904, -1.6549868302150963, -0.4472129924248748, 0.5219687872534134, -0.3619591448246253, 0.14390485313918885, 0.26554234140350946, -0.3831592263576927, -1.32425585656091, -0.28839646328429064, -0.20690269613105117, -0.7865906327574533, 0.20944579030121444, 0.2990083917468402, -0.9284094933297854, -0.11105204335940787, -0.06286776694083016, -0.3166333191091949, -0.16934818088423953, 0.2398049473528168, 0.3043509640593041, -0.25356387881121784, -0.24287105559316702, 0.236510938289505, -0.38999050544915076, -0.6068219777558566, -0.018207235222377764, -0.6499083697060218, -1.0053541476121288, 0.19286767412181613, -0.7376072595454056, 1.3095134741004757, 0.5208479250397456, -0.8358173292243539, -1.193331983279626, 0.3474655395839384, -0.03383817333848104, 0.20478123804510798, -1.3693255213706272, 1.279760398815742, -0.8341448553868824, 0.03460316184025874, -1.2811529450157744, -0.6197706556062772, 0.8661235072791067, -0.7952419036039807, 0.04527852530624543, 0.7251795402736171, -0.45948499044544844, -0.4000366597026042, -0.009534203743608693, -0.42535062880161, 0.07594775810695159, -0.38566987151488574, -0.9640422760785323, -0.2736103952222721, 0.36420222886222264, 0.08895710966960828, 0.6428695342056875, -1.1880691033735213, -0.07371461603249478, 0.04257754810816537, 0.33295455663015044, 0.1419629539266992, -0.06125867291028269, 0.4415320657574737, 0.0764245934116231, 0.3604398569483236, 0.31204622408682803, 0.29936207396786096, -1.197592159086365, 0.5461886753445361, 0.6568493989270601, -0.43422558432840813, 0.2933946957054873, 0.7548186471603273, -0.4426312533438819, 0.02245120700329679, 0.010354282072457652, 0.8810100119443667, 0.5335113634819486, 0.20202395403210968, -0.4733742020952393, -0.12215498377083897, -0.44552223277160785, 0.18826340440442074, -0.5799191089686323, 0.9291155423394918, -0.18578828050037946], [-0.5435491132932961, 0.771419413523775, -0.16353411243427318, 0.06618072634590927, -0.03147428755959025, -0.2907844679078363, 0.21458547429431993, 0.4585382319356353, 0.044039716305813534, 0.04267368588283685, -0.5070869805625801, -0.9127088823725225, 1.8312803491257361, -0.167431556695769, -0.9683410907739538, 0.9769843982740939, 0.1609601959223814, -0.7415253187268908, -0.28139114810472526, -0.6975062355359815, -0.06798740322598049, 0.18809901765700612, -0.4841528178014736, 0.2748537248817081, 0.42665406874366785, -1.0739716702430508, -0.19123060899936462, -0.015215909309515517, -0.370843539282138, -0.1534406943556301, 0.012040577905023355, -1.3483075429569231, -0.4516422507786778, -0.12087993844691876, 0.6471311216213764, -0.22988502743275258, -0.43515130473223085, 0.011764069478777478, -0.2901203084060585, -0.3688678377199295, -0.12201952651499577, -0.9243476441383134, -0.8139710793499388, 1.3682904638388178, 0.4374340505078449, -0.570426127649103, -0.3962556547856085, -0.12053634464998655, -0.8227534315412329, -0.9035800455510649, -0.2854205456825019, -0.14776877536076352, 0.7174957675692545, 0.784455503915056, 0.16070024307385308, 0.47851286503819895, -0.5988696354369695, -0.539354377903553, -0.36086358331349505, 0.020495136620916114, -0.5107874287123427, 0.039848156899547606, 0.00011018684523060634, 0.2872712071516318, -0.8218262408684719, 0.13264718086775398, -0.5793798018400594, -0.07811240581853549, -0.3666563488541978, 0.7207624718686384, -0.5844572299348357, 0.22055017994247586, 0.44492040503715496, 0.03546903293446434, 0.30502428778500595, -0.2820106759208093, 0.9344659994396975, 0.4239331402216039, -1.0944423218266106, 0.445852049318746, 0.25079242744677144, 0.26113011070648817, 0.46351547741680843, 0.046698339676204834, -0.42158417061266235, -0.813093896641564, -0.8642379257839929, -1.0935892878203048, -0.17651230371064308, 0.08792159525595925, 0.3345507669682966, 0.15272903830399975, 0.009912812371547739, -0.6738105964677177, -0.05390100959966685, -0.21679010649026678, 0.6529186838212886, 0.6883408207313223, -0.1347632470550928, -0.5206088757736514], [0.11876912127595882, -0.6892920049194015, 0.23816110085647355, 0.16116101021964963, -0.11484830764581712, 0.20426568920247085, -0.5053704415121405, -0.5521775513647098, 0.5334046825143754, 0.458169053392076, 0.5708164145408328, -0.0039055953168916015, -0.2723202278221416, 0.1623971551466169, -0.7576460314452899, -0.39934217059652116, -0.3121032626757796, 0.27698898528479526, 0.6735633401798391, -0.6576777344355708, -0.0310180409306788, -0.13403365134619313, 0.7581187185360072, 0.12677240941807036, 0.8441352956159289, 0.16464279637410859, -0.19433905936056384, -0.056613279083371104, -0.7010564671856523, -0.1682741791904228, 0.17909574389950172, 0.23286156161067256, -0.41601471610269697, 0.5090945698970848, 0.9715390862440254, 0.24093746905564328, 0.8173627108722684, -0.4796892626385856, 0.263668239695465, -0.41583394102225024, 0.09778758113786955, -0.8350818140613381, -0.26089823883280006, -0.3087107571890584, 0.33114776081316705, -0.014741981139798717, 0.002428512216265709, 0.7662313956387292, -1.0839904164103162, -0.08843789399767772, -0.164358169595965, -0.021946369697010658, -1.312168111716498, -0.47400907652622964, 0.6987514196253922, 0.5763212695033973, 0.4930722258147391, 0.9202957824359492, -0.3856612833335452, -0.3910165763922748, 0.12203813276512379, -0.47425909761266916, 0.15658045406266782, -0.7588528337849983, 1.1133593729242346, 0.25253914688678714, 0.33228739091409265, -0.11343029517826671, 0.11614014851881, -0.6627841807506675, 0.006691968286062486, -0.7500540902240554, -0.013012109016203052, 0.048037538897448565, -0.22116362974268866, 0.40725379667654443, 0.7971537434161061, -0.11987249156862034, -0.24084208271952673, -1.160058390154632, -0.7924943852191045, 0.43753969244942376, 0.5258402843206412, 0.6206015991392564, -0.7065619858974396, -0.9220629733138163, -0.8645251467246285, 0.4377113167753289, 0.2993016552510674, -0.04440212318983067, -0.574671575770863, -1.272360869865243, -0.19031431318060285, 0.39176631569112974, 0.1360378002471346, -0.49653315340601906, -0.24577394816759104, 0.07022372289135889, 0.7783871268284958, 0.42226433720385076], [0.5502868263880196, 1.17401720058351, 0.24055144950294668, -0.9647135305558924, -0.08257191619031751, 1.3213046753438589, -0.10504949933816951, -1.137266620083068, 0.3478053520759219, -0.481505159374844, 0.3321632051988553, -0.05165539772775063, -0.8960122711150382, 0.9379736031601362, -0.01545232783932839, -1.0878167560616072, 0.5327448085953591, -1.1975554978369225, 1.1759746310601205, 0.2818860767976269, 0.17249384893382189, -0.9472570568271304, 0.14759355474610583, -0.4276217217597158, -0.69522065528997, -0.5617286328009468, -0.1506853109959163, -0.6279184226648415, -0.25137154886624635, -0.2339490072509478, -0.33605775988265274, 0.31680181334737617, -0.22601073625778473, -0.6466636946799889, -0.3091438426610372, -0.7670133878906161, 0.5179290875922609, -0.42498221569805755, 0.28058903622562625, -0.7985870941228386, -1.109671356494522, -0.562119918081469, -1.1113014517499664, 1.091796301126066, 0.4428641276864155, 1.0958086669654357, 0.6830651985311437, 0.6041659658805376, 0.7718199527446626, -0.9444440227217988, -0.7935377796893882, 0.9134909590213585, 0.14135326243006194, 0.7093717319375256, -0.8683873534132365, -1.016657074244529, 0.9785107221605793, -0.2671128580266018, 0.028792690280389784, -0.2243225045012221, 0.4460589354531189, -0.43801228304059253, -0.4878285774967173, 0.3896367596151529, 0.11546256728384453, 0.12072970425283784, 0.6268273417347447, -0.21849748960983326, -0.2858826185155793, -0.07703481997489257, 1.6389603387472855, -0.8100923755197009, -0.2268720248005752, -0.7824177193216766, 0.07416138599342444, -0.904323169449427, 0.3535586095014791, -0.16540522130405297, 1.0132581104252583, 0.053072554884142156, -0.5360252520186565, 0.6128824904358743, -1.1897801017507548, -0.7391348095184042, -0.1921052815969337, 0.18009846356292827, 0.7929560632465651, -1.0261515477257728, -0.20401450823390602, 0.04254320514562526, -0.7838472848199252, -0.1562409493973072, 0.07310542463887376, 0.03930602235145302, -0.026836286193617897, -0.06248254838578465, 0.319105543427334, 0.9171067343011006, -1.501476430868382, -0.9481305839500173], [0.15740282581005446, -1.1879392883280737, -1.629434694783023, 0.3665436364407146, -0.03213515781401982, -0.06939788227127977, -0.12837054250358082, 0.9384232122279178, -0.5913180450503717, 0.4083417630308275, 0.49408815591971805, -0.18323432523625932, 0.8524713702892758, 0.17101660319345002, 0.04182083088175781, 0.36959623791948926, 0.11186271238060319, 0.33195603895368336, 1.066534865276643, 0.9119760896319714, -0.3181749140921218, -0.7077568677382202, 0.6603989218741775, -0.511032847346894, -1.5295889698131377, 0.3455576312506018, -0.08477064340044684, -0.6330957094873467, 0.2400252901176039, -0.11969680823477295, -1.8467901880334414, -0.2968695464749627, 1.1709027848367808, -1.4409466584754635, -0.38062826557041285, -0.7832535105931695, 0.5066838881701914, 0.08427130932448507, 0.00021926139204088654, 0.02586311930061015, 0.821249177356725, 0.4477500487050384, -0.005165874114769608, -0.4779518579418051, 0.07696394209824445, 0.2522800690186524, -0.18351293384068854, -0.5231304160040079, -0.33408608515968385, -0.4689721817407154, 1.0484333714254932, 0.437152891058607, 0.7062014338242193, 0.211663654896491, 0.0036255444283023164, -0.7716755144899523, 0.4022305344089606, -0.83094214409268, 0.3595249106155832, 0.6489751131699736, 0.1517342804102183, -0.474764363467672, -0.07487600844328049, -0.026509726940340293, 0.6930557113504416, 0.03183941071559186, -0.22909558062365637, -0.051132863833940626, -0.10847052141300972, 1.2323668010480169, -0.25822370031592806, 0.47208293089935205, -0.46290353529177597, -0.4703541307730173, 1.115128597637842, -0.7699966504452003, -0.7831033009970038, -0.09423873975391316, 0.9961995941765549, -0.8785380974304738, -0.6047963997785053, -1.0037558403158977, 0.5613329986539521, -0.028951134915100384, -0.7593403056073952, -1.2567188221253236, -0.016816176286607965, 0.5550671115432315, -0.46454117593849886, -0.07403734670421164, -0.2797481744704448, 0.03281453883928794, -0.5702306119368606, 0.11479559364430468, 0.03312958873971842, -0.8215813778178754, 1.1842691706141195, -0.43003539489015585, -0.3829644132124432, 0.18486187507958313]]], "bias": [[[0.46067688168125415], [0.3698376791337558], [0.5670102419892799], [0.10598370409235927], [1.36641637325711], [-0.31670906780733443], [0.25403728639661105], [-0.8552128701968004], [0.8958578618245906], [0.8107801504097596], [1.2930052506930971], [0.654757735406073], [-1.55859580926275], [0.9107767094791813], [-0.34457832566682645], [-1.5782111544941546], [1.8326348512652164], [0.9413881169912971], [-0.1372908273267198], [-0.8000834127250016], [0.42106763775397643], [-0.33623439078742257], [-0.3455780302565288], [0.7513800965940853], [-0.9388480384944446], [0.18017948968150316], [2.201067461521301], [1.3065055941709356], [-0.6997155982681185], [3.6304054324110364], [0.34263886315515973], [0.9938259517938589], [-0.4992041065532336], [-0.02639673272615533], [0.34423296030314915], [-1.2478625789123918], [-0.5095749402244599], [-0.7449578567035346], [-0.12740201501201365], [-0.4888239758903932], [-1.4742354718122832], [-0.07537497647721036], [0.46307057718672445], [0.49588251191798793], [0.2773377371696853], [0.9424503870996768], [-0.5743954287080868], [-0.06435733902118616], [0.9753696329848724], [-1.0026976625164348], [-0.062273888135481036], [-0.4722354568483318], [0.8826068108039463], [0.6696283925313783], [-1.331324705235914], [-0.4254587643810717], [0.2566238848381156], [-0.09151886240250505], [1.2915927550102146], [0.7578218399348158], [-1.119735123425818], [0.882400875840878], [-1.8382428102830994], [0.6795350447889009], [-1.4010259877807074], [1.0040772843477992], [0.7469504425341548], [-2.280387701873582], [-0.4736710405178245], [-0.012913499871886022], [-0.5034145864146967], [0.9640652839712911], [-1.4005670414102787], [0.04061969171013595], [0.6707522248984195], [-1.4734086698743103], [-0.21355228316850913], [0.581104189750571], [0.4892228553245812], [-0.2933984499047252], [-0.19328711242985963], [0.3703920383211147], [0.4596495485596295], [-0.2359402014998443], [0.10384118470232746], [-1.09019800578199], [0.9912989553250442], [0.597595587713732], [-0.6974643402846324], [-2.7102055267216714], [-0.7685394592918682], [0.17196674309838153], [0.995601200389515], [-1.0092285108644707], [-1.98946646205452], [-1.6374899397303577], [-0.1305867190530052], [0.9740554534735214], [-0.17790336723182212], [-1.2134227892906975]], [[1.4649055236301225], [0.06151142713265399], [-0.9375829127470774], [-0.9109311188846037], [0.6203437445489788], [-0.1961865611975651], [0.020128329003924646], [-3.6659001209668096], [-0.630137781625012], [-2.2703444426282715]]], "cost": "CrossEntropyCost"}